Language model created by QuickLM on Tue Mar  8 08:36:16 EST 2016
Copyright (c) 1996-2010 Carnegie Mellon University and Alexander I. Rudnicky

The model is in standard ARPA format, designed by Doug Paul while he was at MITRE.

The code that was used to produce this language model is available in Open Source.
Please visit http://www.speech.cs.cmu.edu/tools/ for more information

The (fixed) discount mass is 0.5. The backoffs are computed using the ratio method.
This model based on a corpus of 33 sentences and 22 words

\data\
ngram 1=22
ngram 2=46
ngram 3=51

\1-grams:
-2.5051 ---------- -0.2538
-0.9866 </s> -0.3010
-0.9866 <s> -0.2142
-1.8062 ARE -0.2942
-2.5051 FIFTH -0.2642
-1.9031 FIRST -0.2125
-2.0280 FITH -0.2125
-2.2041 FIVE -0.2538
-1.0902 FLOOR -0.2384
-2.2041 FOUR -0.2538
-1.9031 FOURTH -0.2125
-2.2041 GROUND -0.2125
-1.8062 IS -0.2872
-1.8062 ON -0.2872
-2.2041 ONE -0.2538
-1.9031 SECOND -0.2125
-1.5051 THE -0.2730
-1.9031 THIRD -0.2125
-1.8062 THIS -0.2942
-2.2041 THREE -0.2538
-2.2041 TWO -0.2538
-1.8062 YOU -0.2942

\2-grams:
-0.3010 ---------- </s> -0.3010
-1.8195 <s> ---------- 0.0000
-1.5185 <s> FIRST 0.0000
-1.5185 <s> FITH 0.0000
-0.8195 <s> FLOOR -0.2083
-1.5185 <s> FOURTH 0.0000
-1.5185 <s> GROUND 0.0000
-1.5185 <s> SECOND 0.0000
-1.5185 <s> THIRD 0.0000
-1.1206 <s> THIS 0.0000
-1.1206 <s> YOU 0.0000
-0.3010 ARE ON 0.0000
-0.3010 FIFTH FLOOR -0.1413
-0.9031 FIRST </s> -0.3010
-0.4260 FIRST FLOOR -0.1413
-0.7782 FITH </s> -0.3010
-0.4771 FITH FLOOR -0.1413
-0.3010 FIVE </s> -0.3010
-0.5119 FLOOR </s> -0.3010
-1.4150 FLOOR FIVE 0.0000
-1.4150 FLOOR FOUR 0.0000
-1.4150 FLOOR ONE 0.0000
-1.4150 FLOOR THREE 0.0000
-1.4150 FLOOR TWO 0.0000
-0.3010 FOUR </s> -0.3010
-0.9031 FOURTH </s> -0.3010
-0.4260 FOURTH FLOOR -0.1413
-0.6021 GROUND </s> -0.3010
-0.6021 GROUND FLOOR -0.1413
-0.3010 IS THE -0.0414
-0.3010 ON THE -0.0414
-0.3010 ONE </s> -0.3010
-0.9031 SECOND </s> -0.3010
-0.4260 SECOND FLOOR -0.1413
-1.3010 THE FIFTH 0.0000
-1.0000 THE FIRST -0.0969
-1.3010 THE FITH -0.1249
-1.0000 THE FOURTH -0.0969
-1.0000 THE SECOND -0.0969
-1.0000 THE THIRD -0.0969
-0.9031 THIRD </s> -0.3010
-0.4260 THIRD FLOOR -0.1413
-0.3010 THIS IS 0.0000
-0.3010 THREE </s> -0.3010
-0.3010 TWO </s> -0.3010
-0.3010 YOU ARE 0.0000

\3-grams:
-0.3010 <s> ---------- </s>
-0.6021 <s> FIRST </s>
-0.6021 <s> FIRST FLOOR
-0.6021 <s> FITH </s>
-0.6021 <s> FITH FLOOR
-1.0000 <s> FLOOR FIVE
-1.0000 <s> FLOOR FOUR
-1.0000 <s> FLOOR ONE
-1.0000 <s> FLOOR THREE
-1.0000 <s> FLOOR TWO
-0.6021 <s> FOURTH </s>
-0.6021 <s> FOURTH FLOOR
-0.6021 <s> GROUND </s>
-0.6021 <s> GROUND FLOOR
-0.6021 <s> SECOND </s>
-0.6021 <s> SECOND FLOOR
-0.6021 <s> THIRD </s>
-0.6021 <s> THIRD FLOOR
-0.3010 <s> THIS IS
-0.3010 <s> YOU ARE
-0.3010 ARE ON THE
-0.3010 FIFTH FLOOR </s>
-0.3010 FIRST FLOOR </s>
-0.3010 FITH FLOOR </s>
-0.3010 FLOOR FIVE </s>
-0.3010 FLOOR FOUR </s>
-0.3010 FLOOR ONE </s>
-0.3010 FLOOR THREE </s>
-0.3010 FLOOR TWO </s>
-0.3010 FOURTH FLOOR </s>
-0.3010 GROUND FLOOR </s>
-1.0000 IS THE FIFTH
-1.0000 IS THE FIRST
-1.0000 IS THE FOURTH
-1.0000 IS THE SECOND
-1.0000 IS THE THIRD
-1.0000 ON THE FIRST
-1.0000 ON THE FITH
-1.0000 ON THE FOURTH
-1.0000 ON THE SECOND
-1.0000 ON THE THIRD
-0.3010 SECOND FLOOR </s>
-0.3010 THE FIFTH FLOOR
-0.3010 THE FIRST FLOOR
-0.3010 THE FITH FLOOR
-0.3010 THE FOURTH FLOOR
-0.3010 THE SECOND FLOOR
-0.3010 THE THIRD FLOOR
-0.3010 THIRD FLOOR </s>
-0.3010 THIS IS THE
-0.3010 YOU ARE ON

\end\
