Language model created by QuickLM on Tue Mar  8 08:36:40 EST 2016
Copyright (c) 1996-2010 Carnegie Mellon University and Alexander I. Rudnicky

The model is in standard ARPA format, designed by Doug Paul while he was at MITRE.

The code that was used to produce this language model is available in Open Source.
Please visit http://www.speech.cs.cmu.edu/tools/ for more information

The (fixed) discount mass is 0.5. The backoffs are computed using the ratio method.
This model based on a corpus of 9 sentences and 11 words

\data\
ngram 1=11
ngram 2=18
ngram 3=9

\1-grams:
-1.7324 ---------- -0.2218
-0.7782 </s> -0.3010
-0.7782 <s> -0.2218
-1.7324 CORRECT -0.2218
-1.7324 EXACTLY -0.2218
-1.7324 FALSE -0.2218
-1.7324 INCORRECT -0.2218
-1.7324 NO -0.2218
-1.7324 TRUE -0.2218
-1.7324 UNTRUE -0.2218
-1.7324 YES -0.2218

\2-grams:
-0.3010 ---------- </s> -0.3010
-1.2553 <s> ---------- 0.0000
-1.2553 <s> CORRECT 0.0000
-1.2553 <s> EXACTLY 0.0000
-1.2553 <s> FALSE 0.0000
-1.2553 <s> INCORRECT 0.0000
-1.2553 <s> NO 0.0000
-1.2553 <s> TRUE 0.0000
-1.2553 <s> UNTRUE 0.0000
-1.2553 <s> YES 0.0000
-0.3010 CORRECT </s> -0.3010
-0.3010 EXACTLY </s> -0.3010
-0.3010 FALSE </s> -0.3010
-0.3010 INCORRECT </s> -0.3010
-0.3010 NO </s> -0.3010
-0.3010 TRUE </s> -0.3010
-0.3010 UNTRUE </s> -0.3010
-0.3010 YES </s> -0.3010

\3-grams:
-0.3010 <s> ---------- </s>
-0.3010 <s> CORRECT </s>
-0.3010 <s> EXACTLY </s>
-0.3010 <s> FALSE </s>
-0.3010 <s> INCORRECT </s>
-0.3010 <s> NO </s>
-0.3010 <s> TRUE </s>
-0.3010 <s> UNTRUE </s>
-0.3010 <s> YES </s>

\end\
